tree
version=v4
num_class=1
num_tree_per_iteration=1
label_index=0
max_feature_idx=9
objective=binary sigmoid:1
feature_names=Column_0 Column_1 Column_2 Column_3 Column_4 Column_5 Column_6 Column_7 Column_8 Column_9
feature_infos=[0.0012289606146690391:0.9992215867342672] [0.0049895904102453814:0.99614538369328975] [0.00071831761927332316:0.99735126419943021] [0.00046721555303230744:0.99907322538212961] [0.0011334857122337061:0.99923238545102278] [0.0066406570081878336:0.99982464579490982] [0.00085201913585097877:0.99923816387812314] [0.002642388890061631:0.99901315394231627] [0.00056749329792393777:0.99909612810352455] [0.0020799388025486421:0.99914368978707924]
tree_sizes=867 871 867 872 670 971 869 569 769 873

Tree=0
num_leaves=7
num_cat=0
split_feature=1 4 1 9 2 0
split_gain=7.76966 8.37694 7.67712 12.3719 5.24003 3.08788
threshold=0.29691405654807174 0.91295733010712754 0.14524856749577389 0.36317096893700229 0.75744021239239834 0.38116538177769832
decision_type=2 2 2 2 2 2
left_child=2 4 3 -1 -2 -4
right_child=1 -3 5 -5 -6 -7
leaf_value=0.053572120397918373 -0.052874464524826831 -0.14398291629064716 0.10969508694398961 -0.1078919281423541 0.006207052260447786 0.022373982205391177
leaf_weight=8.4978239834308642 60.234575882554054 8.2478879839181882 6.4983359873294857 10.747247979044912 19.994879961013794 10.747247979044912
leaf_count=34 241 33 26 43 80 43
internal_value=-0.0320027 -0.0480159 0.00682365 -0.0365961 -0.0381501 0.0552776
internal_weight=124.968 88.4773 36.4907 19.2451 80.2295 17.2456
internal_count=500 354 146 77 321 69
is_linear=0
shrinkage=1


Tree=1
num_leaves=7
num_cat=0
split_feature=1 7 5 0 4 2
split_gain=6.4868 8.46774 9.38227 7.42186 6.68523 4.91124
threshold=0.65445431945199584 0.74777362680956816 0.89144428582648649 0.1774756965127022 0.89959017194100854 0.28712199126510957
decision_type=2 2 2 2 2 2
left_child=1 2 -1 -2 -5 -3
right_child=3 5 -4 4 -6 -7
leaf_value=0.011839868861125579 0.065628814680801242 0.0027390824980834264 -0.11086515534143784 -0.031840638920986687 -0.15222361377643295 0.10925960285415096
leaf_weight=57.180334612727165 6.4955480545759192 6.4929568618536022 6.9935027956962577 29.233699008822441 5.4773480445146552 12.983535647392271
leaf_count=229 26 26 28 117 22 52
internal_value=-2.19184e-06 0.0159955 -0.00153221 -0.032478 -0.0508369 0.0737484
internal_weight=124.857 83.6503 64.1738 41.2066 34.711 19.4765
internal_count=500 335 257 165 139 78
is_linear=0
shrinkage=0.1


Tree=2
num_leaves=7
num_cat=0
split_feature=1 1 0 4 4 4
split_gain=5.62137 6.56743 10.1426 6.01529 4.70269 4.52517
threshold=0.29691405654807174 0.18188194305407293 0.65181407839608563 0.91295733010712754 0.45285055255175521 0.11262372105595155
decision_type=2 2 2 2 2 2
left_child=1 2 -1 5 -3 -2
right_child=3 4 -4 -5 -6 -7
leaf_value=-0.043609140256768111 0.04998503553594396 0.0359059227958149 0.095928060216732558 -0.095539704776218481 0.15810539088692191 -0.015532576228866085
leaf_weight=15.959338948130609 12.487799540162085 6.9829784482717496 7.7334086298942557 8.1415293961763364 5.736248105764389 67.652213633060455
leaf_count=64 50 28 31 33 23 271
internal_value=-7.29392e-06 0.0330534 0.00193637 -0.0136433 0.0910167 -0.00532331
internal_weight=124.694 36.412 23.6927 88.2815 12.7192 80.14
internal_count=500 146 95 354 51 321
is_linear=0
shrinkage=0.1


Tree=3
num_leaves=7
num_cat=0
split_feature=1 7 5 0 4 2
split_gain=4.79748 6.49642 7.48034 5.84025 5.4804 4.17302
threshold=0.65445431945199584 0.74777362680956816 0.89144428582648649 0.19592928564424686 0.88672415032796104 0.28712199126510957
decision_type=2 2 2 2 2 2
left_child=1 2 -1 -2 -5 -3
right_child=3 5 -4 4 -6 -7
leaf_value=0.010323241021159467 0.055226865892209334 -0.0010256418933875988 -0.099577095423150019 -0.027345706435036712 -0.135760670291876 0.09730222598885846
leaf_weight=57.091157048940659 6.9925833642482749 6.4814236313104656 6.94692438840866 28.447535708546638 5.5767023414373389 12.919789135456083
leaf_count=229 28 26 28 114 23 52
internal_value=-6.01417e-06 0.0137596 -0.00159887 -0.0280089 -0.0451153 0.0644535
internal_weight=124.456 83.4393 64.0381 41.0168 34.0242 19.4012
internal_count=500 335 257 165 137 78
is_linear=0
shrinkage=0.1


Tree=4
num_leaves=5
num_cat=0
split_feature=8 8 7 7
split_gain=4.57769 4.39372 5.37807 4.6442
threshold=0.90605399937196973 0.50139324089158344 0.27709819428442883 0.55110489428626142
decision_type=2 2 2 2
left_child=1 3 -3 -1
right_child=-2 2 -4 -5
leaf_value=-0.013258477620968882 0.068897055362691584 0.024891085374693644 -0.049177813501814091 0.039644829095288776
leaf_weight=35.782886534929276 8.9453073590993863 13.651642873883246 34.771315142512321 30.94330070912838
leaf_count=144 36 55 140 125
internal_value=-1.25101e-05 -0.00536572 -0.0282959 0.0112747
internal_weight=124.094 115.149 48.423 66.7262
internal_count=500 464 195 269
is_linear=0
shrinkage=0.1


Tree=5
num_leaves=8
num_cat=0
split_feature=1 1 0 4 9 1 4
split_gain=4.13656 6.71289 8.11293 6.06515 10.2304 4.72646 3.33206
threshold=0.27354562748196731 0.18188194305407293 0.65181407839608563 0.11262372105595155 0.46138794063862443 0.38421665517558451 0.45285055255175521
decision_type=2 2 2 2 2 2 2
left_child=1 2 -1 4 -2 -5 -3
right_child=3 6 -4 5 -6 -7 -8
leaf_value=-0.040461164510199266 -0.041691089133691989 0.043142156057415663 0.084642642102643884 -0.074699975165480062 0.13469374084774935 -0.0103155902749187 0.1567471140766736
leaf_weight=15.918460518121721 6.2298296689987165 5.4618867933750135 7.6867693662643424 13.924199774861334 6.9642236083745956 62.941921696066856 4.8961025327444077
leaf_count=64 25 22 31 56 28 254 20
internal_value=-1.18927e-05 0.0297274 0.000277439 -0.0112271 0.0514102 -0.0219787 0.0968419
internal_weight=124.023 33.9632 23.6052 90.0602 13.1941 76.8661 10.358
internal_count=500 137 95 363 53 310 42
is_linear=0
shrinkage=0.1


Tree=6
num_leaves=7
num_cat=0
split_feature=1 7 3 0 4 2
split_gain=3.92208 4.6274 5.95603 4.45536 4.13173 3.69232
threshold=0.65445431945199584 0.74777362680956816 0.079695681580039382 0.1774756965127022 0.89959017194100854 0.28712199126510957
decision_type=2 2 2 2 2 2
left_child=1 2 -1 -2 -5 -3
right_child=3 5 -4 4 -6 -7
leaf_value=0.096907416236143545 0.05078364225818946 -0.0061137745979785475 -0.010070220157900569 -0.0251355627846521 -0.1221821854186608 0.086774581740017245
leaf_weight=5.717305287718772 6.4592727124691001 6.4458974748849895 58.0136678814888 29.125519052147865 5.1650110632181159 12.731788888573645
leaf_count=23 26 26 234 117 22 52
internal_value=7.48104e-07 0.0124863 -0.000473257 -0.0254022 -0.0397532 0.0555535
internal_weight=123.658 82.9087 63.731 40.7498 34.2905 19.1777
internal_count=500 335 257 165 139 78
is_linear=0
shrinkage=0.1


Tree=7
num_leaves=4
num_cat=0
split_feature=8 1 0
split_gain=3.54973 3.66822 5.33533
threshold=0.90605399937196973 0.94802267976346488 0.81663581937978524
decision_type=2 2 2
left_child=1 2 -1
right_child=-2 -3 -4
leaf_value=0.010430718032887911 0.060888214518577892 -0.067841301871391035 -0.049652112642789042
leaf_weight=88.088402897119522 8.883953928947447 8.5238227397203428 17.759167402982712
leaf_count=357 36 35 72
internal_value=-2.38551e-06 -0.00473215 0.000349985
internal_weight=123.255 114.371 105.848
internal_count=500 464 429
is_linear=0
shrinkage=0.1


Tree=8
num_leaves=6
num_cat=0
split_feature=4 9 7 9 0
split_gain=3.34984 8.2871 4.9124 6.20618 4.40205
threshold=0.10506714898203597 0.46138794063862443 0.74141860325556463 0.80243950109184181 0.75950083049170114
decision_type=2 2 2 2 2
left_child=1 -1 3 -2 -4
right_child=2 -3 4 -5 -6
leaf_value=-0.02764070104727703 -0.0059177928730415304 0.1161590262599064 0.052261266632343262 -0.079097308271379146 -0.047499093481261571
leaf_weight=8.2026095837354678 66.652912348508835 7.8362416177988043 20.796637743711475 14.028047680854796 5.6181476563215247
leaf_count=33 270 32 85 57 23
internal_value=-4.00306e-06 0.0426168 -0.00638697 -0.0186416 0.0310433
internal_weight=123.135 16.0389 107.096 80.681 26.4148
internal_count=500 65 435 327 108
is_linear=0
shrinkage=0.1


Tree=9
num_leaves=7
num_cat=0
split_feature=1 9 1 7 4 0
split_gain=3.04249 6.70594 7.69223 4.48723 4.91907 4.14563
threshold=0.30581777437630642 0.36317096893700229 0.14524856749577389 0.077795943202875487 0.90568022745252219 0.39843993525440963
decision_type=2 2 2 2 2 2
left_child=1 5 -3 -2 -5 -1
right_child=3 2 -4 4 -6 -7
leaf_value=0.15096761991987859 0.071924560393185774 -0.072501730178060858 0.045098132723177961 -0.0084552094553563394 -0.091327143328274588 0.038907635784482864
leaf_weight=4.9018629044294348 6.1464133858680716 10.628214448690416 11.668750762939451 71.436206012964249 7.9607426673173896 10.110811635851858
leaf_count=20 25 43 48 289 34 41
internal_value=1.00442e-06 0.0238299 -0.0109578 -0.0103919 -0.0167644 0.0754969
internal_weight=122.853 37.3096 22.297 85.5434 79.3969 15.0127
internal_count=500 152 91 348 323 61
is_linear=0
shrinkage=0.1


end of trees

feature_importances:
Column_1=13
Column_4=11
Column_0=9
Column_7=7
Column_9=5
Column_2=4
Column_8=3
Column_5=2
Column_3=1

parameters:
[boosting: gbdt]
[objective: binary]
[metric: binary_logloss]
[tree_learner: serial]
[device_type: cpu]
[data_sample_strategy: bagging]
[data: ]
[valid: ]
[num_iterations: 10]
[learning_rate: 0.1]
[num_leaves: 8]
[num_threads: 0]
[seed: 0]
[deterministic: 0]
[force_col_wise: 0]
[force_row_wise: 0]
[histogram_pool_size: -1]
[max_depth: 3]
[min_data_in_leaf: 20]
[min_sum_hessian_in_leaf: 0.001]
[bagging_fraction: 1]
[pos_bagging_fraction: 1]
[neg_bagging_fraction: 1]
[bagging_freq: 0]
[bagging_seed: 3]
[bagging_by_query: 0]
[feature_fraction: 1]
[feature_fraction_bynode: 1]
[feature_fraction_seed: 2]
[extra_trees: 0]
[extra_seed: 6]
[early_stopping_round: 0]
[early_stopping_min_delta: 0]
[first_metric_only: 0]
[max_delta_step: 0]
[lambda_l1: 0]
[lambda_l2: 0]
[linear_lambda: 0]
[min_gain_to_split: 0]
[drop_rate: 0.1]
[max_drop: 50]
[skip_drop: 0.5]
[xgboost_dart_mode: 0]
[uniform_drop: 0]
[drop_seed: 4]
[top_rate: 0.2]
[other_rate: 0.1]
[min_data_per_group: 100]
[max_cat_threshold: 32]
[cat_l2: 10]
[cat_smooth: 10]
[max_cat_to_onehot: 4]
[top_k: 20]
[monotone_constraints: ]
[monotone_constraints_method: basic]
[monotone_penalty: 0]
[feature_contri: ]
[forcedsplits_filename: ]
[refit_decay_rate: 0.9]
[cegb_tradeoff: 1]
[cegb_penalty_split: 0]
[cegb_penalty_feature_lazy: ]
[cegb_penalty_feature_coupled: ]
[path_smooth: 0]
[interaction_constraints: ]
[verbosity: 1]
[saved_feature_importance_type: 0]
[use_quantized_grad: 0]
[num_grad_quant_bins: 4]
[quant_train_renew_leaf: 0]
[stochastic_rounding: 1]
[linear_tree: 0]
[max_bin: 255]
[max_bin_by_feature: ]
[min_data_in_bin: 3]
[bin_construct_sample_cnt: 200000]
[data_random_seed: 1]
[is_enable_sparse: 1]
[enable_bundle: 1]
[use_missing: 1]
[zero_as_missing: 0]
[feature_pre_filter: 1]
[pre_partition: 0]
[two_round: 0]
[header: 0]
[label_column: ]
[weight_column: ]
[group_column: ]
[ignore_column: ]
[categorical_feature: ]
[forcedbins_filename: ]
[precise_float_parser: 0]
[parser_config_file: ]
[objective_seed: 5]
[num_class: 1]
[is_unbalance: 0]
[scale_pos_weight: 1]
[sigmoid: 1]
[boost_from_average: 1]
[reg_sqrt: 0]
[alpha: 0.9]
[fair_c: 1]
[poisson_max_delta_step: 0.7]
[tweedie_variance_power: 1.5]
[lambdarank_truncation_level: 30]
[lambdarank_norm: 1]
[label_gain: ]
[lambdarank_position_bias_regularization: 0]
[eval_at: ]
[multi_error_top_k: 1]
[auc_mu_weights: ]
[num_machines: 1]
[local_listen_port: 12400]
[time_out: 120]
[machine_list_filename: ]
[machines: ]
[gpu_platform_id: -1]
[gpu_device_id: -1]
[gpu_use_dp: 0]
[num_gpu: 1]

end of parameters

pandas_categorical:null
